21 20
0.110 0.620 0.280 0.940 0.530 0.940 0.060 1.00 0.610 0.450 0.030 0.790 0.870 0.320 0.660 0.50 0.140 0.820 0.440 0.130 0.430
0.80 0.70 0.160 0.090 0.40 0.630 0.460 1.00 0.90 0.140 0.030 0.80 0.980 0.710 0.670 0.420 0.730 0.010 0.750 0.590 0.640
0.990 0.010 0.450 0.850 0.170 0.140 0.580 0.270 0.960 0.520 0.740 0.890 0.720 0.930 0.220 0.90 0.410 0.780 0.560 0.670 0.840
0.190 0.350 0.980 0.280 0.740 0.420 0.820 0.510 0.330 0.840 0.850 0.460 0.710 0.930 0.110 0.880 0.080 0.720 0.680 0.730 0.820
0.590 0.520 0.170 0.620 0.90 0.660 0.230 0.470 0.290 0.780 0.430 0.990 0.670 0.630 0.380 0.850 0.720 0.60 0.970 0.750 0.960
0.660 0.240 0.90 0.430 0.390 0.310 0.640 0.170 0.750 0.620 0.380 0.380 0.410 0.380 0.410 0.90 0.290 0.210 0.540 0.870 0.350
0.060 0.570 0.040 0.740 0.270 0.750 0 0.520 0.420 0.850 0.350 0.190 0.570 0.420 0.930 0.770 0.090 0.40 0.830 0.390 0.460
0.870 0.770 0.710 0.610 0.730 0.280 0.020 0.960 0.290 0.370 0.270 0.430 0.020 0.820 0.160 0.340 0.490 0.90 0.350 0.110 0.180
0.870 0.70 0.40 0.270 0.350 0.570 0.360 0.890 0.090 0.780 0.640 0.840 0.060 0.690 0.410 0.40 0.640 0.550 0.810 0.690 0.270
0.340 0.490 0.270 1.00 0.780 0.010 0.580 0.870 0.470 0.270 0.230 0.350 0.550 0.060 0.670 0.740 0.170 0.680 0.750 0.760 0.160
0.380 0.710 0.290 0.940 0.840 0.460 0.980 0 0.890 0.580 0.090 0.040 0.040 0.660 0.210 0.580 0.80 0.960 0.780 0.670 0.110
0.360 0.370 0.10 0.360 0.460 0.150 0.990 0.380 0.390 0.520 0.760 0.680 0.940 0.310 0.210 0.990 0.780 0.170 0.150 0.060 0.060
0.940 0.30 0.350 0.240 0.790 0.860 0.70 0.810 0.20 0.230 0.520 0.910 0.550 0.210 0.470 0.440 0.10 0.970 0.610 0.130 0.030
0.030 0.280 0.320 0.060 0.540 0.080 1.00 0.690 0.290 0.480 0.840 0.370 0.740 0.130 0.20 0.750 0.460 0.030 0.680 0.720 0.330
0.430 0.780 0.690 0.910 0.80 0.680 0.460 0.90 0.650 0.190 0.810 0.280 0.30 0.750 0.940 0.050 0.650 0.290 0.610 0.740 0.680
0.010 0.460 0.380 0.720 0.970 0.390 0.880 0.620 0.930 0.260 0.580 0.020 0.950 0.490 0.690 0.640 0.470 0.530 0.430 0.10 0.090
0.830 0.720 0.840 0.410 0.530 0.530 0.670 0.090 0.490 0.420 0.880 0.140 0.090 0.020 0.490 0.290 0.290 0.170 0.080 0.90 0.450
0.540 0.570 0.530 0.230 0.780 0.890 0.240 0.980 0.70 0.750 0.460 0.850 0.390 0.580 0.360 0.290 0.540 0.830 0.970 0.620 0.340
0.30 0.640 0.710 0.070 0.030 0.760 0.250 0.340 0.970 0.930 0.480 0.570 0.980 0.330 0.40 0.180 0.010 0.810 0.380 0.870 0.950
0.250 0.70 0.070 0.40 0.670 0.840 0.120 0.430 0.610 0.70 0.890 0.880 0.480 0.140 0.320 0.980 0.150 0.870 0.340 0.810 0.370